-1.0,0.4132725,0.5796046,0.43204102,0.68982416,0.64424264,0.39802068,0.9464582,-0.96393114,0.5596966,0.5211754,0.60329765,-0.48446453,0.61542076,0.73378867,0.99438226,-0.49407265,0.5734938,-0.11688767,0.88742435,-0.95854604,0.047071964,0.187029,-0.6617047,-0.294795,-0.026409883,-0.11406096,-0.24748415,0.81975377,0.9932537,-0.8197098,-0.42974952,0.04602015,0.15300035,0.14071608,-0.30862263,-0.34184602,0.26190734,0.28692567,-0.16368693,-0.740643,0.17073381,1.0,-0.75950456,-0.5935643,-0.6960908,0.5884605,0.067018256,-0.83368146,0.14329323,0.6376869,0.7072607,0.13100123,-0.70045817,0.5345715,-0.21500918,-0.82162523,0.92947745,-0.022573635,-0.91877407,-0.16091174,-0.84822387,0.04876717,-0.09741318,-1.0,0.12334653,-0.23494011,-0.73541915,0.16848528,0.29418316,0.37356058,-0.21555255,0.19476421,-0.17438838,-0.33895665,-0.34188947,0.7732917,-1.0,-0.5373881,0.21764371,0.18336512,-1.0,0.83494544,0.5665708,-0.08909858,-0.546832,0.9623271,-0.17873347,0.7242004,-0.5756126,-0.35540125,-0.6003314,-0.36987785,0.15698762,-0.9754356,-0.34598327,0.83235997,0.011268273,0.44669712,-0.17242503,0.1256033,-0.9568627,0.3996774,-0.8307067,-0.8924443,-0.08101726,0.11756392,-0.54672134,0.40647763,-0.18737206,-1.0,0.7516748,0.41518083,-0.22192088,-0.8165886,0.87131816,-0.47069645,0.92201805,-0.39751446,-0.9035946,-0.23448388,-0.520479,0.8109144,-0.5862386,0.6027185,-0.48067868,0.63944805,-0.8580943,-0.18000172,-0.5581205,-0.20502687,
0.14870256,0.45705283,0.5024462,-0.52807987,0.7430151,-0.33066833,0.39802068,0.01330173,-0.96393114,0.5596966,0.4523124,0.6917224,-0.45662433,0.23134708,0.78886974,0.99438226,-0.42442477,-0.27999446,-0.05880019,0.88742435,-0.84346557,-0.6686222,0.13521266,-0.73517984,-0.29957038,-0.026409883,0.026640289,-0.22415593,-0.25692526,0.16797084,-0.8197098,-0.4121803,0.05416993,0.8745065,0.14071608,-0.3897769,-0.28741896,0.30654934,-0.8920444,-0.16368693,-0.82734597,0.17073381,0.11984483,-0.95406675,-0.5935643,0.81655043,-0.2697929,0.34034625,-0.9190742,0.09681509,0.6376869,0.7072607,0.14495572,-0.70045817,0.5345715,-0.14323446,-0.9162347,0.22854623,-0.019777775,-0.91877407,-0.16091174,0.908725,0.04876717,-0.03640466,-1.0,-0.06698418,-0.2522964,-0.73541915,0.16848528,0.2121771,0.42012984,0.040722847,0.25066593,-0.3697505,-0.118174754,-0.40404826,0.8478886,-1.0,-0.52704626,0.19070712,0.11005553,-1.0,0.99520653,0.5665708,-0.735392,-0.546832,0.987534,0.90461147,0.7797269,-0.057790257,-0.4498006,-0.63850176,-0.36987785,0.15698762,-0.90479755,-0.37545383,0.83235997,0.0018317103,-0.7190144,-0.20695557,0.029096864,-0.9568627,-0.3554358,-0.7084622,-0.8924443,-0.17334297,-0.7202687,0.501523,0.37046123,-0.09258996,-0.946223,0.7884922,0.41518083,-0.25858387,-0.8165886,0.85169363,-0.47069645,-0.33454397,0.5450777,-0.9035946,0.7071183,-0.77228963,0.8109144,-0.58205354,0.6027185,-0.37900153,0.54386103,-0.90989196,-0.07980759,-0.041890703,-0.20502687,
0.045136303,0.5019356,0.41451105,-0.992752,0.68709373,-0.015924327,0.4074989,-0.023782834,-0.96393114,0.56760025,0.39270842,0.5218622,-0.45662433,0.2784356,0.66606176,0.68950313,0.37615615,-0.27999446,0.87380016,-0.48399615,0.3954745,-0.5372431,0.6986037,-0.36672354,-0.31988102,-0.026409883,-0.3964051,-0.23091629,-0.28358817,0.16797084,-0.07333306,-0.38564816,-0.40556097,0.8030118,0.28195256,-0.33834898,0.5996677,0.3716126,-0.8920444,-0.46321702,-0.45494872,0.56240505,0.06422399,-1.0,-0.49031222,0.83377534,0.006413631,0.31098378,0.21218184,0.57437503,0.5000368,0.642553,-0.30888367,-0.6320182,-0.30147898,1.0,-0.2695177,0.12674439,0.026860453,-0.89563185,-0.13411507,0.908725,0.031409062,-0.7668724,-1.0,-0.023707755,-0.2923703,-0.9264136,-0.008555494,0.23682377,0.35332128,0.9989581,0.29329845,-0.9697934,-0.25522336,-0.49297813,0.8677635,-0.98007303,-0.5575718,-0.2645638,0.11005553,-1.0,0.99711794,-0.6098298,-0.16379726,-0.5644462,0.041762102,1.0,0.7797269,0.5796751,-0.45757818,-0.63850176,-0.46772182,0.23198494,0.50608045,-0.2502913,0.6431737,0.0018317103,-0.88171935,-0.81176376,0.09514952,-0.86151695,-0.54591453,-0.7480037,0.9304295,0.010972589,-0.653065,-0.51027584,0.5944382,-0.24934268,-1.0,0.8348447,0.1762569,-0.29543415,-0.820146,-0.4285855,-0.4452255,0.7721658,0.5449932,-0.96907043,0.7071183,0.19619128,-0.34975338,0.027806044,0.3187151,-0.37900153,0.6391088,0.67869073,-0.07980759,-0.48108393,-0.20970047,
0.1303939,0.44259408,0.27971503,-0.9511533,0.68982416,0.64424264,0.41577977,0.6148156,-0.87573063,0.0622565,0.4613599,0.45981652,0.61705536,0.56038153,0.8894665,-0.07377207,-0.5308532,-0.9452611,-0.17169422,0.72418875,-0.95854604,-0.04118468,-0.51026595,-0.5086426,-0.31633526,0.08062518,0.4344555,-0.4487182,-0.26328334,0.38529605,-0.78342146,-0.41691947,-0.4545894,0.6945491,0.3761496,-0.21404853,-0.47879922,0.30654934,-0.9760553,-0.14205432,0.32973802,0.5198681,0.90537125,-0.87418413,-0.53856623,-0.6709855,0.006413631,0.3426004,0.97675455,0.38958693,-0.55910677,0.6483485,-0.2089558,0.22570577,0.6274073,-0.133145,-0.12418258,0.21255213,0.14276218,-0.89563185,-0.08370867,0.9667804,0.13794553,0.07956472,-0.8828854,-0.16937359,-0.95776093,-0.7957179,0.036035407,0.20478301,0.58090687,0.040722847,0.035117507,-0.059507154,0.28363007,-0.24732095,0.76829886,-0.97934103,0.7734493,-0.4744256,-0.35144925,-1.0,0.55443,-0.622216,-0.19004907,-0.5520787,0.1292873,1.0,0.8229789,0.4919021,-0.44550782,0.12462616,-0.40313467,0.17781396,0.4945631,0.8642726,0.769416,0.0018317103,0.041961193,-0.038368925,-0.060855746,0.5879799,-0.62703425,-0.7752854,-0.2601763,-0.073826216,0.110201634,-0.38963923,0.8231722,-0.24934268,0.24999607,-0.55451137,0.09634615,-0.23402414,-0.8165886,-0.53953505,-0.054666653,0.26868317,0.114275046,-1.0,0.76146686,0.1893217,0.888201,-0.97575927,0.23359501,-0.39577788,-0.5033804,-0.030704293,0.28204203,-0.48108393,1.0,
-1.0,0.4132725,0.29915053,0.43204102,0.8094473,0.64424264,0.33652624,0.9464582,0.23725522,0.5596966,0.4523124,-0.1444217,-0.48446453,0.61542076,0.8050053,0.91394126,-0.9706085,-0.30707714,-0.11688767,0.901345,-0.95854604,0.0014415905,0.13521266,-0.6499752,-0.294795,-0.062468715,-0.064883016,-0.22415593,0.22601819,0.9932537,-0.46605814,-0.51545465,0.04602015,-0.2566861,0.85625017,-0.20981166,-0.34184602,0.30654934,-0.17594624,-0.16368693,-0.7864448,0.077646464,1.0,-0.089420915,-0.28324282,-0.6799698,0.4239146,0.054661572,-0.9190742,0.09681509,-0.37964556,0.7072607,-0.1536431,-0.70045817,0.5038981,-0.04867044,-0.89685863,0.21255213,-0.019777775,-1.0,-0.07730233,-0.39538774,-0.10400003,-0.09741318,-1.0,0.40199733,0.5618396,-0.73541915,0.16848528,0.279598,0.27457058,-0.034100078,0.2840264,-0.17438838,-0.33804047,-0.34188947,0.8142703,-0.9417285,-0.5624067,0.19070712,0.11005553,-0.94370055,-0.26221204,0.5207143,0.7082351,0.7862476,0.9623271,0.96136713,0.76381874,-0.6119771,-0.4498006,-0.63868874,-0.36987785,0.15698762,-0.9754356,0.808308,0.83235997,0.0358992,-0.5179496,-0.20410812,0.03715553,-0.6832077,-0.28156483,-0.8307067,-0.31185555,-0.08101726,0.027811423,-0.53248143,0.40647763,-0.12099429,-0.1713993,0.7516748,0.41518083,-0.25858387,-0.7240189,0.87131816,-0.41876814,0.92201805,-0.31532323,-0.9035946,-0.23448388,-0.520479,0.8109144,-0.6135551,0.5195869,-0.4329546,0.22318578,-0.83247733,-0.18000172,-0.5581205,0.97407794,
-0.73074424,0.5398577,0.6008213,-0.9511533,0.6796941,-0.9505607,0.41577977,0.01330173,-0.96393114,-0.038727343,0.39270842,0.30759358,-0.48668367,0.56038153,0.8894665,0.675993,0.38168752,-0.27999446,-0.21365327,0.8457659,-0.84346557,0.7248112,0.7346309,-0.36672354,-0.3262746,-0.026409883,0.08663331,0.23303923,-0.27070892,0.38529605,-0.7281014,-0.38564816,0.0059263967,-0.37508905,0.16429488,-0.12283351,-0.35646486,0.30654934,-0.8920444,0.52583903,0.23230314,0.44280332,0.06422399,-0.95406675,-0.40947685,0.81655043,0.6028419,0.73801684,-0.9250387,-0.43910062,0.5695571,0.7072607,-0.16904172,-0.6320182,-0.30147898,-0.1300034,-0.17580861,0.31319103,-0.019777775,-0.89563185,-0.35623133,0.908725,-0.036106743,0.07956472,-1.0,-0.06698418,-0.95776093,-0.7912083,-0.04692204,0.20478301,0.35332128,0.8866526,0.035117507,-0.9697934,-0.118174754,-0.40404826,0.8677635,-0.97934103,-0.37579095,-0.12805957,-0.35144925,-1.0,0.99711794,-0.6098298,0.91754305,0.28652266,0.08281006,1.0,0.31512165,-0.13323593,-0.4370424,-0.76680845,-0.25249147,0.15838075,0.4945631,0.42803174,0.699307,-0.054706216,-0.7190144,-0.10546204,0.15022379,-0.9396762,-0.54257804,-0.7752854,0.9504745,0.010972589,-0.74579185,-0.6644121,0.60376644,-0.24934268,-1.0,0.7884922,0.41518083,-0.25858387,-0.7249008,0.9698691,-0.334578,-0.23964837,0.6743089,-1.0,-0.36529619,0.19619128,0.888201,-1.0,0.6577566,-0.17922986,-0.5033804,0.61647063,-0.019762993,0.040103674,-0.20970047,
