0.0,0.0,0.0,0.0,0.0,0.0,0.0,0.0,0.0,0.0,0.0,0.0,0.0,0.0,0.0,0.0,0.0,0.0,0.0,0.0,0.0,0.0,0.0,0.0,0.0,0.0,0.0,0.0,0.0,0.0,0.0,0.0,0.0,0.0,0.0,0.0,0.0,0.0,0.0,0.0,0.0,0.0,0.0,0.0,0.0,0.0,0.0,0.0,0.0,0.0,0.0,0.0,0.0,0.0,0.0,0.0,0.0,0.0,0.0,0.0,0.0,0.0,0.0,0.0,0.0,0.0,0.0,0.0,0.0,0.0,0.0,0.0,0.0,0.0,0.0,0.0,0.0,0.0,0.0,0.0,0.0,0.0,0.0,0.0,0.0,0.0,0.0,0.0,0.0,0.0,0.0,0.0,0.0,0.0,0.0,0.0,0.0,0.0,0.0,0.0,0.0,0.0,0.0,0.0,0.0,0.0,0.0,0.0,0.0,0.0,0.0,0.0,0.0,0.0,0.0,0.0,0.0,0.0,0.0,0.0,0.0,0.0,0.0,0.0,0.0,0.0,0.0,0.0,0.0,0.0,0.0,
0.89598405,0.6337503,1.5,-0.9730299,-1.0,-2.1795173,0.16865349,-1.0,4.54901,-2.72347,-0.7055949,0.9889109,1.0,-1.0,1.0,1.5,-1.0,-1.0,-1.5,1.1512728,-1.5,0.45203686,1.0,-0.24589229,-0.2403063,-0.5195881,-0.2176736,2.25,0.8459734,-1.5,-0.64967597,-1.0,-1.0,-1.0,-1.0367955,-3.5915387,-1.463813,3.9703095,1.5,1.0,1.0,2.5952806,4.637451,1.0,1.0,0.07303454,1.186943,-0.70647347,2.0847712,-4.498211,-1.5,-0.076744795,-1.5,0.12885845,-1.0,-1.0,-2.25,-1.9198794,-1.0,1.0,-2.0787528,-3.4326806,0.48980615,1.0,-2.7755876,1.0,-1.0,-0.31920135,1.0,-1.5,-1.0,-1.0,-0.24349761,-3.3359084,-0.06602061,-1.0,-1.0,5.0746436,1.5,0.7445413,-1.5,0.14024532,-1.0,-1.5,0.84726787,1.0,-2.25,-0.06971288,0.24801183,-1.0,5.5497704,1.0,0.8838557,-0.8457211,1.5,1.0,2.26676,0.7099995,-1.5,5.0298615,4.3225527,1.5,-1.0,-1.0,1.0,-1.0,1.0,-0.91172314,-0.15175939,1.0,-0.6047871,-1.5,1.0,0.49223152,1.0,-1.0,-0.817546,1.0,1.0,1.0,-0.74981046,-1.0,-1.0,-1.3770294,1.4927742,-1.5,-0.7585125,1.0,4.1225553,-1.0,-1.0,
1.0,-1.5521445,-0.19434965,-0.56747824,-1.0,-1.5,-1.0,-1.0,1.0,0.39943075,-1.0,3.5969453,1.2476585,-0.05522442,1.0,1.0,2.0,-1.0,-1.0,5.2318616,0.07018778,-1.5,0.9724419,1.0,-0.44127342,-0.48183036,0.16238254,0.083269954,-0.4610166,-0.28016242,-1.0,0.5136088,-1.0,-1.9337274,-0.28575987,-2.135307,-0.76795083,1.0,1.5,0.7938888,2.0,0.60341865,4.5286508,0.49535537,1.5,0.20725422,-1.0,-0.28938484,-0.93424284,-1.0,-1.0,-2.0,-1.1041725,0.3001622,-1.5,-1.0,-2.25,0.5408833,-1.8490077,1.0,-1.0,-0.843308,-0.9530599,2.25,-1.8630162,1.8535457,-0.632876,0.8533915,1.0,-2.0,-0.9378211,-1.0,-0.14701176,-0.9792857,0.9940318,-0.6974124,-1.0,3.408274,1.0,-0.77408755,-1.0,-0.97472095,-2.0,-0.66184616,1.7102442,-0.13494146,-2.25,-0.2294048,-1.0,-2.0,1.5,0.6924368,-0.77750653,-1.5761476,1.5,1.0,-0.10779083,-0.79607654,-1.8800291,1.1394246,-0.30433464,1.5,-0.3855064,-0.8348732,1.0,-0.7055876,0.9034995,-0.77222276,-1.1618421,0.20232439,-0.99159205,-0.756379,2.75,1.0,1.0,-1.0,1.0,0.7958021,1.0,1.0,-1.9137986,-1.0,-2.3686967,-2.0,1.0,-1.7359778,0.046213485,1.0555402,1.0,0.3558618,-2.0,
1.5,-0.41170338,1.6911695,0.6667801,-0.9581554,-1.9060229,-1.0,0.08491399,1.5,-1.6815779,-1.5,3.5565915,1.0,-1.0,1.0,1.0,2.5,-1.0,-1.9597877,1.0,-0.34379637,-1.5,2.0805078,0.44810843,-0.22490191,-0.021767974,-0.9336022,1.0,-0.892518,-1.4245782,0.16978097,-2.79071,-1.0,-1.75,-0.05894143,-1.0,-0.82399595,1.0,1.0,1.0,0.65643466,1.0,-0.90774786,-0.33763313,1.0,0.30012187,-1.0,-1.0,-0.53219444,-1.5,-1.0,-2.719234,-1.0,0.3426419,-1.0,-2.875,0.08109105,-1.4552824,-1.0,1.0,-0.43306184,-1.0,-0.9932108,1.5,-1.0,2.0,-0.29437125,-0.35347104,1.4683402,-1.5862879,-1.125391,-1.8057426,0.56787056,-1.5,0.821378,-1.5,0.83232164,0.7626407,1.9233882,1.0,-0.18624532,-0.51066566,-1.75,-0.9456235,0.9409847,-0.50435233,-1.75,-0.9760301,-2.375,-2.5,1.5,5.6696153,-0.5454162,-1.5708902,1.5,1.5,0.21498327,-2.25,-4.1183176,3.1766205,1.0,2.9795203,-1.2247499,-3.0497723,1.5,-1.0,1.0,-1.5,-1.0,2.2177365,1.7077252,-1.0,2.862535,1.0,1.5,-1.0,1.2428799,1.0,1.0,1.0,0.9877943,-1.0,-1.0,-1.0,0.2823416,-1.0,-0.67184687,3.6035943,1.0,-0.06891542,-2.25,
1.4432257,-1.0,1.0,-0.85679036,-1.0,0.9633229,-2.9228578,-1.75,1.0,-0.38369334,-0.9703966,1.0,1.8562162,0.2410754,0.4781748,1.0,-0.05162275,0.085844755,-1.5,2.4870737,-0.94737244,0.35690212,1.6773604,-0.09171766,-0.24198765,-0.7626902,-0.04763998,2.25,0.02931244,-1.0,-1.0599964,-2.79071,-1.0,-1.75,-0.58456606,-2.894359,0.89753056,1.0,1.5,3.5633693,1.0,0.253976,4.916586,1.0,0.15113723,0.09072283,-1.0837046,-1.0,0.8898474,0.4098822,0.47601795,-1.75,-1.0,0.1868961,-0.45264745,-3.5,-2.25,-1.0,-1.6439116,2.5493033,-0.36154234,-1.0,-0.16421375,0.55589235,-1.0,1.0,-0.8580304,0.8908335,2.125,-1.0,-0.6072718,-1.0,1.5,0.5347996,0.25004536,-1.5,-1.0,4.5080957,1.0,1.75,-1.0,0.42377186,-1.0,-1.0,1.0,0.52818733,-2.25,-0.2931198,-1.0,-2.75,1.0,0.7191949,0.2555542,-1.2389534,1.5,1.0,1.0,-0.36259627,-1.2555802,4.103241,1.0,1.0,0.30142295,-1.0,1.0,-1.1027938,1.5,-1.1520748,-0.30110854,1.0,-0.64149,-1.75,1.0,1.9844289,1.0,-1.75,1.0,1.0,1.0,1.0,-1.5,-1.3934233,-2.5572474,-1.6680197,1.7043138,-1.5,0.7626543,3.4781494,0.14282691,-0.67509437,-1.75,
