-0.107738376,-1.5,1.0,0.83172244,-4.849146,1.0,-1.0,-1.0,1.5,-1.0,-0.8391859,-3.0,-0.7998367,0.30825782,2.4790068,-1.0,1.4658446,0.6844951,0.8068198,-1.4314145,-1.0,-0.23988703,0.10294819,-0.24814728,-5.3445034,1.0,-1.0,-0.4856621,-1.0,-0.88843846,0.8962298,2.25,1.0,0.09269333,-1.0,-0.9899546,0.29091847,1.0,0.38204336,-0.9895334,-0.42083085,-1.0,0.60827565,1.0,1.5254018,3.0,-1.0,0.5028771,-1.5,-1.5,-1.0,-2.9323359,1.0,-0.6954823,1.0394264,-2.385868,0.73657703,0.15625753,-0.76274395,1.0,-0.22622502,1.5,1.0,3.5371099,-0.13018525,-0.5952045,-1.0,1.4883566,1.0,1.5,-1.0,0.29598257,1.0,-1.0,6.0034676,1.5,1.0,4.6731215,-6.7635255,1.0,0.78069735,-2.25,2.5905647,-0.5444503,1.0,-1.0,-0.38102293,-1.0,0.7668814,-1.5,-0.16387264,1.0,-1.5,-2.1861913,1.0,-0.8144154,1.5,1.5,-1.1953851,-0.96852875,-2.625,-2.25,-1.0,1.0,1.0,-1.0,-0.10429604,0.91295856,-1.0,0.18338525,-1.0,0.5555832,-1.5,0.21028173,-1.0,1.0,-0.3080387,-1.0,-1.5,-1.1029735,0.23090833,0.8732838,1.4811096,-1.0,-1.1280587,-0.11301637,-0.3633573,-1.0,1.0,0.89015746,-2.2901556,
-1.5,-1.0,1.0,0.92637146,-1.0,1.0,-1.5,-1.0,0.22461955,-2.25,1.0,-1.5,-1.0,0.024613556,1.0,0.025005877,1.0,-1.0,3.0,-1.8885487,-2.6654248,-0.59270084,0.014650084,-0.13562551,0.40958345,1.0,-0.48689115,0.75453883,-1.0,-0.1436218,1.061482,1.0,2.2180429,-1.0,-1.0,-0.90870523,1.0,-0.9191252,0.16304186,-1.0489037,0.7589206,0.44521213,-0.3135826,1.5,1.0,0.7193445,-1.5,-1.4777431,0.092844255,0.93487304,-1.0,-1.0,1.0,1.0,-11.0859375,-0.5421476,0.4226703,2.25,-0.10548645,0.122119665,1.0,1.0,3.1875,-0.5249902,2.25,-0.4929179,-1.5,-0.8449954,4.6426873,0.8443148,-0.50893146,0.138559,1.4935008,-0.862026,1.5,0.38247395,3.75,-0.39762235,-6.7635255,1.0,0.7015492,-2.25,1.0,-0.0270627,0.82687175,-1.0,1.0,0.03573861,0.119075716,-1.5,-1.0,1.0,-1.5,-1.0,1.0,-0.8768241,1.0,1.0,-1.0,0.8065578,0.26841798,-1.0,-1.4095047,1.0,1.0,-2.302777,1.0,-2.25,-1.0,-1.0590694,-1.0,0.26526725,-2.140098,-0.37884533,0.44442666,1.0,-0.28973114,-2.4312615,0.9809613,-1.0,0.079701304,-1.0,0.44561988,-1.0,-0.5058,1.8722148,2.1453867,-0.7249836,0.48314345,-1.0,-1.5,
-1.0,-0.5239564,1.0,-1.0,-1.0,1.5,-1.0,-1.5,2.625,-3.0521383,0.8779526,-1.0,-0.947455,0.81314015,1.0,0.3503568,1.0,-1.5,-0.68226385,-1.0,1.0,-1.0,1.5,-0.26679647,-0.1975379,5.4795017,-1.0,0.27012125,-1.4351349,0.19844243,0.8435334,1.0,-0.29916084,-1.5,-1.0,1.5,1.0,1.7055262,0.5940506,-1.0,-0.4579701,-6.515625,-1.0,1.0,-0.018133774,1.0,-1.0,-0.6628617,-0.91371655,-1.0,-8.76351,-1.5,2.0283422,2.25,-1.0,-1.0,-0.18715686,-0.22183585,-0.13406193,-0.52498186,1.0,0.43188733,0.06991136,1.0,1.5,0.0750573,-0.61728334,-1.0,1.0,0.8667432,-0.038993478,-0.22744417,0.90389174,-0.24104941,8.631935,1.0,1.0,1.0,-1.5,1.0,0.93170375,-0.24647653,1.8405647,0.57534957,0.5587374,-0.5774065,1.0,-0.5035304,-0.341847,-1.5,-0.31405127,1.0,-0.42985272,-1.0,1.0,-0.4970542,1.5,0.18315163,0.8335821,1.0,-1.5248015,-1.5,-1.0,1.0,1.5,-1.0,1.0,-2.25,-1.0,-1.0,-1.0,-1.0,-1.0,-1.0,-1.0,1.0,-0.72111267,-0.4906767,-0.11416054,-1.0,-1.0,-1.0070932,0.38337612,-1.5,-2.1844373,1.5,-0.73927164,-0.43964016,0.3707838,-0.4501319,-1.0,
-2.0,-1.0,1.0,-1.355972,-1.1184614,1.75,0.46309972,0.18679112,1.0,-1.75,0.6785189,-1.5,-1.0,0.44805387,1.0,0.87357956,0.19190502,-1.0,4.46875,-1.0549736,-1.888475,-1.0,-0.33517617,-0.21711656,-0.88928,1.0,0.10368736,0.75453883,-0.53903604,0.19868891,1.2630126,0.45756602,1.0,-1.8242009,-1.5,4.339103,0.2561779,-0.0602504,0.37691936,-0.5324666,-0.1070449,-1.0,0.074551105,1.0,-0.7547939,1.0,-1.5,-1.4777431,-1.0,-1.1883757,-10.727785,0.19577587,1.0,1.0,-8.6328125,-1.156516,-0.87768245,1.0,0.1578445,-1.5891523,7.1294966,-0.23744458,2.0958748,1.0,1.0,-0.38635147,-1.5,-0.9773816,1.0,2.0,0.50003964,-0.21381657,1.0196195,-0.12608346,1.5,1.3425366,2.7954016,4.3022294,-1.0,1.4478219,0.4025305,-2.5,2.5883064,0.4239206,1.0,-1.0,1.0,-0.842514,0.034622423,0.8504863,-1.4614775,1.0,-2.0,-1.0,-0.41942987,-0.31403688,1.0,1.0,-1.0,0.37056142,-0.6681527,-1.0,-0.93071836,1.0,-0.9439856,-0.34443474,0.94648206,0.4782015,-1.0,-1.2930394,-0.8295573,-0.78979266,-1.0,-1.0,-0.97696114,2.0,-0.78050184,-1.0,-0.9332365,-1.0,-1.5,-1.0,0.7875317,-1.0,-1.3632445,1.0,-0.52691174,-1.0442597,2.2524,-0.95867014,-1.0,
0.0,0.0,0.0,0.0,0.0,0.0,0.0,0.0,0.0,0.0,0.0,0.0,0.0,0.0,0.0,0.0,0.0,0.0,0.0,0.0,0.0,0.0,0.0,0.0,0.0,0.0,0.0,0.0,0.0,0.0,0.0,0.0,0.0,0.0,0.0,0.0,0.0,0.0,0.0,0.0,0.0,0.0,0.0,0.0,0.0,0.0,0.0,0.0,0.0,0.0,0.0,0.0,0.0,0.0,0.0,0.0,0.0,0.0,0.0,0.0,0.0,0.0,0.0,0.0,0.0,0.0,0.0,0.0,0.0,0.0,0.0,0.0,0.0,0.0,0.0,0.0,0.0,0.0,0.0,0.0,0.0,0.0,0.0,0.0,0.0,0.0,0.0,0.0,0.0,0.0,0.0,0.0,0.0,0.0,0.0,0.0,0.0,0.0,0.0,0.0,0.0,0.0,0.0,0.0,0.0,0.0,0.0,0.0,0.0,0.0,0.0,0.0,0.0,0.0,0.0,0.0,0.0,0.0,0.0,0.0,0.0,0.0,0.0,0.0,0.0,0.0,0.0,0.0,0.0,0.0,0.0,
