-0.9692881,0.9231024,0.06772411,0.5557153,-0.8685272,0.84095097,-0.47385752,-0.6636852,-0.40896106,0.6210637,0.77550757,0.7160382,-0.99020445,-0.34634376,-0.21330619,0.74918413,-0.08149052,-0.8613304,0.616536,-0.9018849,0.8949454,-0.28585494,-0.57744634,0.7755618,-0.99907434,-0.5893495,-0.8569205,-0.25244665,-0.28543663,0.613116,0.50540185,-0.776703,0.20202744,-0.8190372,-0.42664015,0.73064744,0.4204831,-0.40051174,-0.93841195,0.42978346,-0.4698782,-0.6051121,-0.9342656,-0.046248674,0.061043143,0.083048105,0.1571753,-0.31073773,0.65398395,0.8356173,0.46898448,0.53745496,-0.322397,-0.31064916,0.49037075,0.44137967,-0.89445734,-0.49388266,0.8539493,0.36012685,0.48138142,-0.32275796,0.03974414,0.84044623,0.15769255,-0.42066848,0.25869167,-0.7767215,-0.9031905,0.50787747,-0.025161028,0.0689832,-0.023095965,0.8745463,-0.23115885,0.24159205,-0.9498297,0.14513743,0.25648212,-0.18421662,-0.17587066,-0.23498893,-0.6932906,-0.47665155,0.13737583,0.27084482,-0.8626971,0.70785475,0.31383085,0.18166602,0.31722772,-0.017619729,-0.1776905,-0.9857861,0.11867571,-0.83274615,-0.9602128,0.9501023,0.91570866,-0.78943443,-0.6027603,-0.976527,-0.17149854,-0.8420408,0.23765886,-0.9173603,-0.99811137,-0.25972974,0.27938962,0.74861515,0.7549474,-0.40542662,-0.4218731,-0.15532434,0.3466574,0.7390349,0.52282584,0.65775406,-0.19553018,-0.19621563,0.6707401,-0.5757767,-0.2776599,-0.79580486,0.39240658,0.77557135,-0.75185657,0.36115718,0.40744138,0.8558234,-0.2256571,
0.06301427,0.6766076,-0.5891404,0.7785276,0.86996603,-0.11393309,0.48477972,0.5214335,0.23429644,0.3086238,-0.7688173,0.120001316,-0.19457877,0.32794178,0.7049326,0.12387562,-0.329659,0.8202207,-0.053811193,0.9187019,0.41678083,-0.8599752,0.9629518,0.87309253,0.67348826,0.17039025,0.77712464,0.48390687,0.86148274,0.07088053,-0.90560305,-0.76651263,-0.630602,-0.4290594,0.61862254,0.36089802,0.23956978,-0.7289113,0.94155395,-0.7934998,0.11959171,0.07373071,-0.6601614,-0.31394434,-0.99667764,-0.0074762106,-0.09966993,0.28893566,0.8686824,0.88933706,0.025542617,0.8081285,0.33615494,0.6472734,-0.44675362,0.8620486,0.94710326,0.67451787,-0.8762282,0.75532985,0.5264709,-0.00421679,-0.13215888,0.9748268,0.6880399,0.3559184,-0.5548197,0.786116,-0.8936877,-0.65484834,0.5745542,-0.8256359,0.36766005,-0.5499593,-0.24977434,-0.51779747,-0.4187168,0.81232274,0.28543735,0.28817093,0.4406259,-0.7054237,0.26385713,0.62557876,0.9473617,0.94325185,0.67479324,0.8777199,-0.18173647,0.12378049,-0.1266216,-0.5530155,0.87186134,0.27795148,-0.38488495,0.45948064,0.02465713,0.5006459,-0.006320834,-0.25848508,-0.5900613,-0.1873517,-0.45353377,-0.47085154,0.46632373,-0.7387928,0.12504208,-0.18227673,-0.5653107,0.73411405,-0.4452995,-0.073274136,-0.23598456,-0.1686076,0.98224795,-0.72020483,0.57800865,0.2875569,-0.35630882,-0.85543203,0.12058878,0.54440916,0.73971856,-0.761932,-0.5889573,0.18829381,-0.4909941,-0.1925416,0.036767244,0.41673672,0.415951,
0.37886417,0.087362766,-0.29152238,-0.71053636,0.37022567,-0.19590425,0.5658994,-0.98377204,-0.0858649,0.43327296,-0.7526295,-0.6997503,-0.51094186,0.9249861,-0.73255694,-0.103315234,-0.30303168,0.7822467,-0.33578348,0.17133152,0.71960354,0.626395,-0.25181043,0.75625026,-0.44734538,0.6095511,0.22537553,0.008528829,0.33855557,-0.85633564,-0.71561635,-0.35764337,0.35659444,-0.56318545,-0.37360108,-0.87651646,0.52386546,-0.27685416,0.07880318,-0.96690226,-0.010887504,-0.06893158,0.9476552,0.8536781,0.47194982,0.8492831,-0.0072922707,0.88722515,0.35176706,-0.977846,-0.5063294,-0.6725266,0.6145083,0.9416294,-0.2581463,0.06949139,-0.87656224,-0.68483245,0.14222133,-0.49399126,0.32515156,0.8971038,0.43359172,-0.6603694,0.49892902,-0.3999921,-0.90320575,0.9998332,0.6017387,0.28443325,-0.62911296,-0.58446276,-0.7202221,0.097976565,-0.7338908,0.13664341,0.86852765,0.7418666,-0.8395648,-0.24403203,0.37641156,-0.7642207,0.88697505,0.5475247,-0.73705137,-0.8141123,-0.66413,-0.3446449,-0.9672518,0.20015967,-0.5381696,-0.8573923,0.555007,-0.19220531,0.9433913,-0.9969101,-0.101207495,-0.69820654,-0.40010524,-0.23693764,-0.8069681,-0.48334563,0.8359667,-0.3681041,-0.54627323,0.26495743,-0.06905925,-0.9751234,0.8776854,0.48128033,-0.21640956,-0.43532073,0.2214545,0.95988166,0.9032662,-0.0891273,0.5368532,-0.26947558,0.9309114,-0.33348966,0.72250426,-0.19241977,-0.017465234,0.5209371,-0.39276183,-0.6096877,0.61986744,-0.78184664,0.17065561,0.11234987,-0.46427965,
0.0,0.0,0.0,0.0,0.0,0.0,0.0,0.0,0.0,0.0,0.0,0.0,0.0,0.0,0.0,0.0,0.0,0.0,0.0,0.0,0.0,0.0,0.0,0.0,0.0,0.0,0.0,0.0,0.0,0.0,0.0,0.0,0.0,0.0,0.0,0.0,0.0,0.0,0.0,0.0,0.0,0.0,0.0,0.0,0.0,0.0,0.0,0.0,0.0,0.0,0.0,0.0,0.0,0.0,0.0,0.0,0.0,0.0,0.0,0.0,0.0,0.0,0.0,0.0,0.0,0.0,0.0,0.0,0.0,0.0,0.0,0.0,0.0,0.0,0.0,0.0,0.0,0.0,0.0,0.0,0.0,0.0,0.0,0.0,0.0,0.0,0.0,0.0,0.0,0.0,0.0,0.0,0.0,0.0,0.0,0.0,0.0,0.0,0.0,0.0,0.0,0.0,0.0,0.0,0.0,0.0,0.0,0.0,0.0,0.0,0.0,0.0,0.0,0.0,0.0,0.0,0.0,0.0,0.0,0.0,0.0,0.0,0.0,0.0,0.0,0.0,0.0,0.0,0.0,0.0,0.0,
-1.4539322,1.0,0.10158616,0.80122423,-1.0,1.0,-0.7107863,-0.8967626,-0.64802724,0.9665992,1.0,1.0740573,-1.4853067,-0.51951563,-0.31995928,1.1237762,-0.122235775,-1.0,0.92480403,-1.0,1.3424181,-0.3391441,-0.8236671,1.0,-1.0,-0.8832744,-1.2853807,-0.28760487,-0.42815495,0.91967404,0.7581028,-1.1650546,0.62349796,-1.0,-0.6399602,1.0959711,0.5445872,-0.3561573,-1.4076179,0.6316472,-0.7131283,-0.9076681,-1.4013984,-0.49113977,0.1840471,0.045659542,0.36738503,0.16018558,1.0,0.81447446,0.74947083,0.7695536,-0.48877764,-0.46597373,0.7355561,0.64212704,-1.0,-0.740824,1.280924,0.58245933,0.79234636,-0.4789948,-0.021545812,1.2606694,0.23653883,-0.5673863,0.3880375,-1.1650822,-1.0,0.7618162,-0.045210525,0.017838359,-0.024787962,1.0,-0.35856906,0.28227282,0.9502666,0.21770614,0.3847232,-0.27632493,-0.263806,-0.41373682,-1.0,-0.7149773,0.2524629,0.40626723,-1.0,1.0,-0.90535295,0.27249902,0.43870234,0.057336457,-0.26653576,-0.45942628,0.4040488,-1.0,-1.4403193,1.4251535,1.0,-1.0,-0.9041405,-1.4647905,-0.24841991,-1.0,0.3727403,-1.0,-1.0,-0.3895946,0.41908443,1.0,1.1324211,-0.60813993,-0.63280964,-0.23298651,0.6073441,1.0,0.5526329,-0.5139146,0.2852553,-0.27227074,0.3270327,-0.86366504,-0.37707862,-1.0,0.5109456,1.0,-1.0,0.54173577,0.61116207,1.283735,-0.4081262,
