12.038374,-1.6016407,0.40516543,1.0,-1.1323655,2.755867,3.05058,1.0,1.0,1.0,-2.0,-1.0,1.2898479,0.15448937,2.9263206,0.9033071,-3.0832267,1.0,-1.0,-1.0,-1.5,-1.0,-1.0,1.0,1.7324616,-8.095106,-1.0,-2.5794444,-23.027988,1.0,0.36035812,-1.6968249,-2.5658972,-1.0096503,0.40099275,-5.8125,0.55676484,-1.0,1.0,-4.4592705,0.19520469,-1.5,0.4674604,-1.0,1.0,1.75,-1.4845119,-0.4220883,0.8039267,1.0,-1.5,1.0,-2.034039,-1.0,-1.0,-2.246947,2.391077,1.0,-0.19908771,-0.87758017,-4.4649096,-1.0,-0.7009434,-61.065353,56.343052,1.0,0.70976055,-1.0,1.0,1.0,-0.3598713,-6.0906343,-0.43179607,-0.7960052,1.0,-1.5,-1.0,-6.563589,5.559413,1.0,-1.0,1.0,-1.0,2.0757256,1.0,-1.0,0.802027,
8.211483,-1.4531376,-1.6684095,0.86111534,0.08482787,1.102056,3.2495928,1.0,1.0,4.315038,-1.0,-1.1660739,0.7876986,1.0,1.0,1.0,-1.0,0.9881291,-0.9322163,-2.1563,1.2284337,-1.0,-0.3742832,1.2669454,0.5775258,-6.259675,0.4408306,-0.87164295,-16.300156,1.0,0.5178317,0.61935496,-0.713119,0.551265,-1.3444782,-6.235145,-0.06971569,0.6467764,-0.46886888,0.43762863,-1.0,-1.0,0.9954236,-0.7957832,0.025977314,0.8526568,-1.0060579,-0.15131938,-0.66786283,1.2631017,-1.0,1.0203323,0.07520214,0.8008209,2.313192,1.2865129,-0.80670255,1.0,-1.0,-1.0,-1.0417144,-1.0,1.0,-19.738916,17.887459,1.0404683,0.95847416,-1.4708418,1.5981911,1.0,-0.5428713,-0.9523269,-0.761919,-1.0,1.4688659,-1.4938295,-1.3362746,-1.0,0.7672526,1.0472395,-1.1878216,4.355307,-1.0,3.3068204,0.6910751,-0.67224467,1.0,
6.940851,-1.1933446,-3.1672301,1.5593206,-1.165395,1.0,3.212686,1.0,2.8465617,1.0,-1.9529727,-1.0,1.0,0.83185655,1.0,-0.4220234,-1.5793244,1.0,-2.7716444,-0.12970388,-0.39788195,-1.0,0.028264046,1.0,1.0062135,-1.5,-3.1548917,-0.14192784,-19.327652,1.0,1.0,-0.59675694,-0.77950454,0.3219933,-2.0,-1.0,8.621443,0.21256879,-0.21312198,-1.0,-0.18569204,-1.75,1.0,-0.46020663,1.2629887,1.5091813,-3.717191,1.2651849,-0.16854,2.752451,-1.0,0.5791514,-0.9722482,-0.84832144,-0.41871932,-0.6772453,0.024284363,1.0556158,-0.29885983,-1.0,-1.5,-1.6096499,0.41710573,-24.573742,22.629612,1.7123431,1.0,-1.0,1.0,1.8632749,0.29750156,-0.8446367,-3.0643263,-1.0,4.238118,-1.8600845,-0.20335078,-3.3308325,-0.9216528,1.4837699,0.13626087,1.0,-1.0,1.80599,2.0955377,-1.0,-0.1592133,
13.652334,-1.0,-1.0,1.751422,-0.41215494,1.0,5.173687,1.0,2.3465617,4.815038,-1.0,-1.0,0.9588417,1.7237768,2.095088,0.4964471,-1.0,1.7321937,-0.4014578,-3.679337,1.7284337,-1.875,-0.8114248,-0.18439507,1.0,-6.759675,0.41124588,-1.371643,-26.484217,1.0,1.0,1.022598,-1.0,0.967227,-1.0,-10.102717,1.0,0.6956864,-0.79004055,0.25498986,-1.0,-1.75,2.9943817,-1.2957833,0.27525783,1.3618381,-2.0019193,0.113865495,-1.0,1.0,-1.75,1.7804985,0.47289947,1.0,1.0,1.2949171,-1.2151172,-0.77289176,-1.0,-1.5,-0.73077,-1.6627225,1.0,-32.221832,29.12178,1.5739058,1.0,0.74227905,2.0981913,0.50545263,-1.0,-1.6784904,-1.3928785,-1.0,1.0,-1.7928655,-1.0,-0.8954892,1.0,1.0,-2.0317326,1.0,-1.1417067,3.6128104,1.2866126,-0.9690401,1.0,
20.4785,-1.0,-1.5,1.0,-0.6521398,1.5,1.0,1.5,3.5198426,1.0,-1.5,-1.5,1.4382625,2.5856652,3.142632,0.7446706,-1.5,2.5982904,-0.6021867,-1.0,1.0,-2.8125,-1.0,-0.2765926,1.5,-10.139513,0.547507,-2.0574644,-39.726326,1.0,1.5,1.533897,-1.5,1.4508405,-1.5,-15.154076,1.5,1.0,-1.1850609,0.3824848,-1.5,-2.625,4.4915724,-1.0,0.41288674,2.042757,-3.002879,0.17079824,-1.5,1.0,-1.0,1.0,0.64470947,1.5,1.5,1.0,-1.8226758,-1.0,-1.0,-1.0,-1.0,-2.4940836,1.0,-48.33275,43.68267,1.0,1.5,1.1134186,1.0,0.82612175,-1.5,-1.0,-2.0893178,-1.5,1.0,-2.6892982,-1.0,-1.0,1.5,1.0,-1.0,1.0,-1.0,5.4192157,1.929919,-1.4535601,1.5,
21.465267,-1.811571,-1.358358,1.1246567,-1.0,1.5894789,1.0,1.0,1.5,1.0,-3.9059453,-0.2994096,2.7421763,1.0846885,1.203611,-0.7099623,-1.5,5.425629,-1.6926435,-3.1132963,-0.21491408,-1.0,-1.0,1.0,-0.47230506,-4.209121,-5.3583703,-2.0,-47.49799,6.8643203,1.5,1.0,-1.0,0.3822442,-2.0,-15.391396,1.0,-0.31619522,-0.1252582,-3.434313,-0.7624662,-1.0,1.0,-1.4741917,1.0,2.8933625,-1.5,1.2255673,0.25016272,2.677224,-1.0,2.4753883,-1.0,1.3256216,-0.49923307,-0.28151512,0.18317074,1.7002667,-0.75034475,-1.0,-1.0,-1.5,0.4137163,-82.93841,76.20405,1.5,0.9287305,-2.970842,1.2803618,1.5,-0.34972477,-9.799404,-2.413527,-2.265683,1.0,-2.348072,-2.2339954,-0.26245046,2.0,2.678507,-2.6878216,0.20880622,0.5174769,0.6849536,2.191075,-1.5,0.94131577,
24.584242,-2.2265687,-1.0,1.4305577,-0.5758185,1.0,9.385326,1.5,1.5,9.380076,-1.0,-0.03255391,0.9276896,1.0,1.0,1.3145242,-1.0,1.0,-0.7641335,-1.0,1.6142168,-1.0,-1.1871417,0.35688007,1.0,-0.8592739,0.83728415,-0.40136886,-47.876404,1.0,1.2589159,1.8435745,0.41197246,1.2756325,-1.0,-18.271648,1.4651421,1.2831832,-1.2344345,0.8615628,-1.0,-3.125,0.51703846,-1.3978916,0.4258754,1.0,-3.5059078,0.4707669,0.017942786,1.0,-0.24118018,1.5101662,0.7065316,1.0,1.0,1.0,-1.0,-0.81875217,-1.0,-1.0,-1.6170121,-2.9940836,1.0,-58.202206,52.6264,2.8810928,1.0,0.3779977,3.9463825,1.0,-1.7714356,-1.0,-2.4702773,0.11908245,1.7344329,-3.436213,-2.1681373,0.9953145,-0.42258894,1.5236198,-3.6415095,3.6776536,-2.2125602,2.6534102,1.3455375,-1.7896824,1.5,
22.277624,-1.0,-0.37791553,1.5,-1.4584353,1.0,1.0,1.75,2.7599213,1.5,-2.75,-1.0,2.008979,1.447322,1.0,1.2756424,-1.0,1.0,-1.3010933,-1.5,-0.9846859,-2.40625,-1.5,0.8617037,2.4824615,-1.0,-0.7262465,-3.6081767,-42.89115,1.5,1.1103581,-0.9298764,-3.3158972,-0.2842301,-0.34900725,-13.389538,0.41245735,-0.5,0.3919271,-4.2680283,-0.5547953,-1.0,2.7132466,-1.5,1.2064433,2.7713785,-2.9859514,-0.33668917,0.053926706,1.5,0.1272614,1.5,-1.7116842,-0.25,-0.25,-1.0,1.0,0.5,-0.69908774,-1.0,-0.7257079,-2.2470417,-0.20094341,-85.23173,78.18439,1.5,1.4597605,-0.47408623,1.0,0.4738053,-1.1098713,-6.5906343,-1.0,-1.5460052,1.0,-2.844649,-1.5,-7.063589,1.0,1.0,-1.5,1.0,-1.5,4.7853336,1.9649595,-1.72678,0.4945563,
16.173485,-1.0,-1.0,0.37465668,-1.4939656,0.4005121,1.0,1.0,1.0,1.0,-2.9059453,-0.67665917,1.8710881,1.0,0.703611,-0.72433007,-1.0,3.4568791,-0.19264352,-1.0,0.50891274,-1.0,-1.0,-0.22995162,1.0,-2.6045606,-2.7087698,-1.5,-33.933056,3.9321601,1.0,1.0,-2.1781356,0.19638944,-1.5,-11.563271,3.224852,-0.03552279,-0.30851018,-1.8194954,-0.5509422,-1.0,4.1425476,-1.0,0.98270476,1.9558626,-1.0,0.87796855,0.59844565,2.2201629,-1.0,1.9978603,-0.12959653,1.1628108,0.23873198,-0.15966614,-0.31682926,1.0,-1.0,-1.0,-1.0,-1.0,0.70685816,-53.952118,49.336346,1.0,0.86001563,-2.470842,-0.96528614,1.0,-0.6748624,-5.6258655,-1.0,-1.8219199,2.4688659,-1.4730722,-2.035135,-4.694473,1.5,1.9285071,-2.1878216,0.6402065,-1.0334135,0.18495357,1.6910751,-1.0,0.9706579,
10.881702,-1.8589646,-4.3344603,1.7806134,-0.9939656,1.9480792,3.848188,1.0,2.6931233,1.0,-1.9059453,-1.0,1.0,1.4475536,2.1901758,-0.32757545,-1.1586487,1.4881291,-1.5432887,-3.0460737,1.0,-1.75,-0.8742832,1.7669454,1.245955,-1.0,-0.05916941,-1.0,-20.368122,1.0,1.0178317,0.8064862,-1.0656676,0.98688436,-1.0,-7.735145,3.4077425,0.24514964,-0.49176216,-0.20467782,-0.47555578,-1.5,3.997916,-1.0,0.5259773,1.0183626,-1.9917227,0.53036976,-1.0,1.7631017,-1.5,1.5203323,0.79539466,1.0,1.0,0.01680839,-0.81682926,1.348999,-1.5,-1.0,-1.0,-1.3254449,1.0,-24.965828,22.468643,1.066875,0.81283766,-1.9708418,1.0,1.7265499,-1.0,-1.4523269,-1.261919,-1.378157,1.9688659,-0.5980722,-1.8362746,0.17031705,1.0,1.1785071,-1.6878216,1.0,-0.28341353,0.61197996,1.1910751,-0.59359086,1.0,
0.47038436,-1.7900169,-1.0,2.338981,-1.7480925,1.0,1.0,1.5,1.0,1.5,-2.929459,-1.0,1.5,1.2477849,1.5,-0.7660037,-2.3689866,1.5,-1.0,-0.19455582,-0.81279683,-1.5,0.25626743,1.5,1.0,-0.41846383,-4.7323375,-0.17899114,-28.991478,1.0,1.0,-0.8951354,-1.0,0.48298994,-1.0,-1.0,12.932164,0.3188532,-0.31968296,-1.5,-0.8278893,-1.0,1.5,-0.66104454,1.0,2.263772,-5.5757866,1.8977773,-0.25281,4.1286764,-1.5,0.96632093,-1.0,-1.0,-0.6054693,-1.015868,0.036426544,1.5834236,-0.42304587,-1.5,-2.25,-2.414475,0.658244,-36.86061,1.0,2.5685146,1.0,-1.5,1.5,1.0,0.45725042,-1.0,-1.0,-1.5,1.0,-1.0,-0.30502617,-4.9962487,-1.0,2.2256548,0.2043913,1.5,-1.5,1.0,3.1433065,-1.0,-0.23881996,
0.47186768,0.7070911,-0.4285624,-0.043891907,0.53959465,0.5740534,0.32352388,-0.35198474,-0.7710979,-0.07027912,-0.8084141,0.5941496,-0.47099614,0.9552413,0.48943198,0.24255228,0.98985827,0.03245175,0.87893605,-0.9613085,-0.18926549,-0.14882028,0.12847781,0.0028630495,0.784227,-0.60135734,-0.66828406,-0.96027136,-0.7875906,-0.47078502,0.5608829,0.8627696,-0.9878986,-0.2752676,-0.8026452,0.63894975,-0.055198073,-0.35190356,-0.81664574,-0.28382003,0.8550272,0.8009881,-0.6382506,-0.26134038,0.87117624,0.31101477,-0.3632853,-0.36052704,0.38944483,0.041865826,-0.35152543,-0.61116457,0.2788123,-0.054445624,0.29366732,0.8392494,-0.14994848,0.11834073,0.053487778,0.82094264,-0.25835776,0.2974857,0.5604019,-0.016041994,0.78923774,-0.3831731,-0.98216987,0.34502602,0.24300516,-0.94616055,0.39396465,-0.4279536,-0.75991964,-0.96592486,-0.81972086,0.62698305,0.37010598,-0.34827936,0.9080074,-0.7040765,-0.5857953,-0.3852992,0.5538616,-0.42418277,-0.903162,-0.3171649,0.9727409,
0.98016703,-0.047846317,-0.4522388,0.13458955,-0.9039415,0.43921387,-0.030282497,0.3106177,-0.3959551,-0.70726883,0.8610649,-0.42226684,-0.7015693,0.09772003,-0.13183522,-0.252527,-0.8374381,0.33911622,0.9866643,0.7663989,-0.58776665,-0.9065062,0.6413963,-4.4322014E-4,-0.323115,-0.7266289,-0.58175385,0.84913445,0.6057999,0.3602978,-0.14502537,-0.3399092,0.53413856,-0.8927069,0.14090097,-0.36226535,0.19678128,-0.72815514,-0.34246075,0.89469075,-0.4817965,-0.6436068,0.5860177,-0.86662495,-0.6781038,0.16410434,0.54092073,-0.23680651,0.3872944,-0.91489315,-0.25118363,-0.61134434,-0.96381986,0.054799914,-0.285784,-0.9438648,0.6607287,-0.5048264,-0.19670415,0.9150858,-0.9753437,-0.032613993,-0.42007577,-0.93267334,-0.6035569,0.2154504,-0.94085824,-0.5900006,0.63473904,-0.46563065,0.9662572,-0.18032086,0.17245388,0.50025046,-0.5725994,-0.29616094,-0.22442389,-0.115082145,-0.2517469,0.919631,-0.770404,0.6546271,0.6964985,0.518203,-0.6190772,-0.7857187,0.28133798,
27.718475,-1.9294822,-2.5451458,2.3903067,-1.0,1.9740396,1.0,2.25,4.106483,1.0,-3.7029727,-1.5,1.0,2.1710987,2.095088,1.0,-1.5793244,1.7440646,-1.0,-1.0,-0.57637924,-1.0,-1.0,1.0,3.105439,-1.0,-0.7558312,-4.1081767,-53.07521,2.0,1.6192739,-0.53292316,-1.0,0.20921206,-0.84900725,-1.0,1.0,-0.3774252,0.06128922,-4.370367,-0.86757594,0.40378594,-0.9941126,-2.0,1.469432,3.2805598,-1.0,-0.071504295,-0.4460733,1.0,-0.6586037,2.2601662,-1.0,0.25354618,0.25,-0.9862128,0.5915854,-0.066788435,-1.0,-1.5,-1.0,-2.9097643,0.27924827,-97.714645,89.41871,2.0334375,1.0,-1.4595071,1.0,1.3370802,-1.0,-7.3167977,-1.0,-1.0,-0.35150242,-3.143685,-2.4181373,-6.9784307,1.5,1.0,-2.3439107,1.0,-1.6417067,5.091324,1.0,0.81989086,0.9945563,
19.350296,-1.9531376,-1.8573673,1.0,-0.7359755,1.602056,1.0,1.0,1.0,1.0,-2.375,0.5155319,1.0,1.723661,1.0,1.0,-1.0,1.0,-1.582763,0.4725479,0.7360908,-1.0,-1.0,1.6977972,1.8187566,0.88052,-0.08980572,-1.0,-1.0,1.75,1.0730107,0.16600162,-2.3710675,0.40914994,-1.0,-1.0,0.14978668,0.39677638,-0.27290535,-1.6963855,-1.2773976,-1.0,-0.8912134,-1.0,0.66608834,2.238346,-1.0,-0.3635403,-0.6408995,2.0131016,-0.9363693,1.0,-0.78064,0.7560829,2.188192,0.6893522,-0.21271083,1.25,-1.3495438,-1.5,-1.0,-1.0,0.89952826,-62.354782,1.0,1.0,1.6883545,0.72612464,1.0,1.2369027,-1.0,-4.247644,-1.261919,-1.7730026,1.0,-2.916154,-2.0862746,-1.0,1.2672527,-4.3547153E-4,-1.9378216,1.0,-1.0,1.0,0.20876467,-1.0,1.0,
30.364367,-1.5,-0.8779155,1.0,-2.205418,0.116657734,1.0,-0.15552354,0.8710444,2.0,-1.0,-1.0,2.944523,1.947322,1.3518054,0.82581145,-1.5,2.7284396,-1.0,-2.0,-0.7969909,-1.0,-1.0,0.7467279,1.0,-1.0,-2.0806313,-1.0,-59.85768,3.4660802,1.0,-0.52881,-4.404965,-0.1860354,-1.0,-1.0,2.0248833,-0.45012432,0.237672,-5.177776,-0.8302664,-1.0,4.78452,-1.0,1.6977956,3.7493098,-3.4859514,0.1022951,0.35314953,1.0,-0.42278922,2.4989302,-1.7764825,0.5615798,0.68623793,-1.079833,0.92738944,-0.81531584,-1.1990877,-1.0,-1.0,-0.3892554,0.18708527,-112.20779,1.0,2.0,1.8897684,-1.0,0.51735693,0.9738053,-1.0,-9.403567,-1.0,-2.4569652,0.5902548,-0.70632195,-2.5175676,-1.0,1.0,1.9642535,-2.5939107,1.3201033,-2.0167067,4.8778105,1.0,-1.0,0.5955374,
22.771008,0.4846685,-0.27401358,1.5623283,-1.6323655,3.5506065,-0.16033483,1.5,1.75,1.5,-3.9529727,-1.0,0.6085293,0.6968336,1.0,0.56966764,-3.8332267,3.7128146,-1.0,-2.5566483,-1.0,-1.5,-1.5,-0.08826399,1.0,-1.0,-3.6791852,-3.5794444,-46.776985,4.4321604,1.0,-1.0,-3.0658972,-0.81852823,-0.59900725,-0.6561817,1.0567648,-1.1580976,0.9373709,-1.0,-0.10680846,-1.0,0.9674604,-1.0,1.0,3.1966813,-1.0,0.15200491,0.97234184,2.338612,-0.11442709,2.2376943,-2.534039,-0.3371892,-1.0,-0.85539436,2.4826624,1.0,-0.5742601,-0.6610975,-4.9649096,-0.14967144,-0.5365553,-1.0,94.445076,1.75,1.0,-2.485421,1.6401808,1.0,-0.53473365,0.6394063,-1.6385596,-1.0,1.5,0.91334975,0.97340024,0.27924323,6.559413,2.3392534,-2.3439107,1.0,-0.74126154,2.4182024,1.0,-1.75,1.2726848,
1.0,-1.0,-1.1557753,1.6246567,-1.5661827,2.9674125,2.52529,1.5,1.0,1.5,-1.0,-0.8863448,3.3871002,1.0,2.6667714,-0.25830877,-3.0416133,5.925629,-2.1926436,0.029748082,-0.9988376,-1.5,-1.5,1.5,0.97212267,-8.256674,-5.8583703,-3.2897222,-1.0,-0.25185323,0.2970556,0.15158755,-1.0,-0.17821981,-1.7995036,-18.297646,0.7451618,-0.81619525,0.4581364,0.56790686,-0.6417793,-1.75,1.0,-1.0,1.5,1.0,-1.0,0.5710559,0.6521261,3.177224,-1.0,2.9753883,-2.0170195,0.8256216,-0.99923307,-1.4049886,-0.34619164,1.0,-0.91074216,-1.4387901,-1.0,-2.0,0.06324458,-0.04007995,104.37557,1.0,1.0,-3.470842,1.0,1.0,-0.5296604,-1.0,-2.629425,-1.0,1.5,-3.098072,-2.7339954,-1.0,1.0,3.178507,-3.1878216,0.65996027,0.017476916,1.7228163,2.691075,-2.0,1.3423293,
