1.0,-1.0,1.0,0.7257616,-1.0,-1.7126132,-1.0,0.47595274,2.0597377,0.75125873,1.0,-1.0,0.1610829,-0.47475973,-0.859112,-1.0,-0.35358018,-1.7929899,1.5,-1.0,-1.0,0.17698586,0.30917394,-1.0,0.33861935,-0.0022918582,1.4090098,0.80761015,-0.22663045,0.028509416,0.40424922,-1.2280095,1.0,-0.460932,-0.58964777,-0.60741913,0.85410094,-0.7880975,1.8644141,1.5,1.5,1.0,0.210067,-1.5,2.2955313,-1.0,-0.08171797,1.0,1.0,-1.0,-0.50420976,-1.0,-1.0,1.0,-1.8855639,-2.1090417,-1.0,0.5195396,-1.2088788,-0.7417877,1.0,0.34350508,0.8449162,1.5,-1.0,1.0,1.0,-0.22733033,-0.9627069,2.095663,0.7855524,1.0,-1.5,-1.0,0.88264364,-1.0,-0.92315716,0.4033829,-1.0,0.4790948,0.10467664,1.0,1.0,-1.7891512,1.0,-1.0,0.9880266,0.97752464,-0.6804496,1.0,1.0,-2.4659266,-0.9496367,-1.0,-0.8400973,2.7229147,-0.8326326,1.0,-1.0,1.75,-0.9871597,-1.0,0.6581278,-1.0,0.3835646,-0.4629727,-1.0,0.97329175,1.5,-1.0,1.75,-1.0,5.9678793,1.5,-0.7887362,-1.0,-0.9337678,0.7948912,-1.0,0.11758237,1.0038655,0.7463021,1.0,-0.33220965,1.6335018,-0.18387485,0.6176024,-1.0,-3.7421875,0.8343568,0.20708877,
-0.19788319,0.22319245,1.5,0.8176603,-0.6859534,-1.4924185,-2.7474291,0.7123581,1.0,1.4698908,1.0,-1.0,0.1889125,0.29519436,1.0,-1.5,-0.36951482,-0.5408021,1.0,-0.6746012,-2.0,-1.0,-0.3547012,-1.0,-0.52224314,-1.1156071,-0.66341734,-1.875,0.42718247,0.30384094,0.48834345,-1.0,1.5,-0.4496523,1.5,0.12801448,-0.13198504,-2.3656173,-0.9647107,1.75,-0.61594653,0.64918673,0.587687,-1.0,4.231199,-1.0,-2.25,2.2854505,5.558091,-0.7764857,-1.0,-2.0,-1.020005,1.0,-1.0,-1.0,-2.029143,1.0,-0.73781604,0.3325582,1.75,-0.36887294,-0.06714645,1.0,0.1381836,3.971046,1.5,2.7808359,1.0,1.0,0.071104765,0.23526192,-1.75,-1.146105,0.72256964,-4.4141912,-0.5667716,1.578052,-5.33078,0.16938746,0.062844336,-0.62898755,1.0,-2.1285596,1.5962591,-1.0,-1.0,0.6789539,-0.8137869,1.0,1.0,-1.0,-0.17867732,-1.0,1.0,2.8442807,-0.5942942,1.1320133,-1.0,2.25,-0.93538177,-1.0,-1.0,-1.0,1.0,-0.44558555,-0.6553831,0.65513253,1.0,-1.0,1.0,-3.1604269,1.0,2.4723399,-0.64997125,-1.0,-1.75,0.08978236,-1.0,-1.5,0.6298152,-0.12727654,1.0,1.5,1.5,0.3752512,1.0,-2.0,-1.0,-0.10812332,0.56595653,
1.8735707,-1.0,1.0,0.7578504,-1.2286512,-2.4429665,-3.0271902,0.5130149,1.5,0.79660255,1.0,-2.25,0.1761142,-0.48549607,-0.5553708,-1.0,-0.91882277,-1.5,1.0,-1.0,-1.5,-0.13496932,0.43518323,-3.4220755,-1.0,-0.01451271,1.0,-1.875,-0.18212649,0.36775506,0.25848138,-1.0,1.0,-0.34911084,1.0,0.09826565,0.51950943,-1.5,1.0,1.75,1.5,2.3719242,-0.536544,-1.0,2.2955313,-1.0,-1.0,1.0,1.0,-0.31728363,-0.50420976,-1.0,-1.0,1.0,-1.0,-1.0,-2.0516944,0.29792482,-1.0,1.0,2.25,-0.0035539865,0.62868065,1.0,-1.7603548,1.0,1.5,1.9269452,3.9501271,1.0,1.5,0.95704746,-1.75,-1.146105,0.9826297,-5.3302393,-0.876085,1.0,-1.0,0.4790948,0.08056416,1.0,1.8970889,-1.4748714,1.0,-1.0,0.3164909,0.93073857,-0.6475357,1.3918846,0.6279665,0.23707628,0.2081567,-1.0,1.0,0.24511063,-0.589814,1.0,-0.9804028,0.6968365,-0.65134954,-2.8734279,-1.0,-2.8725846,1.0,-0.4629727,-1.5621673,0.3400596,1.0,-1.8670361,1.0,-1.0,1.0,1.0,-0.78865725,-1.0,-1.1837678,1.5,-1.5,0.044406176,0.91472346,0.76194286,2.53125,-0.30177295,1.6335018,0.94634604,0.6146871,-1.3878081,-1.0,-0.29543614,-0.10347218,
-0.15926191,-1.0,1.3522272,-0.22061062,-0.9573023,-1.2373393,-0.6770083,0.49452195,1.0,1.1105747,1.0,0.71026623,0.035915248,-0.12526187,1.0,-1.0,0.7052413,-1.0,1.0,-2.0,-0.08885372,-0.66150707,0.048120312,0.18605304,-0.67692405,0.2267977,-0.73994195,-1.0,0.13428856,0.05409479,0.2179529,-1.5439403,1.5,-0.6707561,1.75,-0.25452048,0.0054724365,-1.0,1.0,1.0,-0.9740677,0.057405114,0.6743195,-1.5,1.0,-1.0,-2.484375,1.0,5.4403915,-1.0,-1.0,-2.0,0.8156434,1.75,-1.0,-1.8045208,-2.3049903,0.90417856,-1.0101295,0.37423122,1.75,0.19835788,0.3539342,1.5,-1.4433646,3.147364,1.5,1.0,1.0,1.0,-0.5994686,3.5258284,-0.39707673,-1.5,0.91571635,-6.3293114,-0.7833134,1.0,-8.596405,0.28696635,-0.9288024,1.0,2.2941778,-0.10129571,1.0,0.2936437,-0.59175456,0.9194649,0.68927014,1.2174962,-0.45743644,-2.4215345,-0.5683979,-0.8123487,1.0,1.0,0.6069691,1.5,-0.53553605,1.0,-1.0,-1.937107,-1.0,-1.0,0.4198718,-0.45427912,0.7246921,0.99605757,0.067795396,-1.4563653,1.0,-0.73200953,0.18912637,1.5,-0.76539505,-0.8599363,-1.2168839,0.036061585,-1.0,-0.8096291,0.824506,0.58461684,1.0,0.60998744,1.5667509,0.014687203,1.0,-0.8477409,-1.0,0.32776183,0.5418031,
0.0,0.0,0.0,0.0,0.0,0.0,0.0,0.0,0.0,0.0,0.0,0.0,0.0,0.0,0.0,0.0,0.0,0.0,0.0,0.0,0.0,0.0,0.0,0.0,0.0,0.0,0.0,0.0,0.0,0.0,0.0,0.0,0.0,0.0,0.0,0.0,0.0,0.0,0.0,0.0,0.0,0.0,0.0,0.0,0.0,0.0,0.0,0.0,0.0,0.0,0.0,0.0,0.0,0.0,0.0,0.0,0.0,0.0,0.0,0.0,0.0,0.0,0.0,0.0,0.0,0.0,0.0,0.0,0.0,0.0,0.0,0.0,0.0,0.0,0.0,0.0,0.0,0.0,0.0,0.0,0.0,0.0,0.0,0.0,0.0,0.0,0.0,0.0,0.0,0.0,0.0,0.0,0.0,0.0,0.0,0.0,0.0,0.0,0.0,0.0,0.0,0.0,0.0,0.0,0.0,0.0,0.0,0.0,0.0,0.0,0.0,0.0,0.0,0.0,0.0,0.0,0.0,0.0,0.0,0.0,0.0,0.0,0.0,0.0,0.0,0.0,0.0,0.0,0.0,0.0,0.0,
