-0.53445387,-0.42768013,-0.52959883,0.106066585,0.5860183,0.7090845,0.06298494,0.35409844,0.4014926,0.85615873,-0.8269938,0.5184766,0.74584436,-0.07997763,0.56770563,-0.70042765,-0.03922999,0.54446924,0.99117494,-0.48019242,-0.90758085,-0.939461,0.13817227,0.15895557,0.7779559,0.37142742,-0.52367556,-0.45944548,0.77106225,0.4889847,-0.9630164,-0.5586847,0.6164396,-0.20870113,0.47402668,-0.67303324,0.08163929,-0.83053315,0.5907147,-0.2865759,-0.34548986,0.101388216,-0.075068235,-0.52247345,-0.6881002,0.26289856,-0.58845973,-0.38088465,-0.51306844,0.89970076,0.43728316,-0.015557885,0.86641145,0.08147526,0.37998426,-0.56543255,0.5261477,-0.20734179,0.87229824,-0.8274493,0.68089485,-0.86069345,-0.77520776,0.8771075,-0.2607875,-0.26889455,0.638764,0.03154087,-0.30502713,0.40107107,0.7722558,-0.3551104,-0.5290048,0.1282326,0.91077673,-0.64657784,-0.49795568,-0.4877982,-0.7638581,0.73706937,0.48116398,9.2864037E-4,-0.4373697,-0.68431795,0.2032007,0.7882526,0.28071094,-0.011136413,0.26190174,-0.22352564,-0.7425605,0.19158924,0.96280503,-0.95226705,-0.98686635,0.4531449,-0.79473555,-0.88062966,0.83116007,0.7226156,0.79655564,0.9918442,-0.45205235,-0.7300073,0.2535423,-0.8415108,0.881246,-0.6460341,0.71856034,0.76618433,0.33501923,-0.51211715,0.29294026,0.83263004,-0.7007365,-0.98728013,0.53215003,0.58363676,-0.9461932,-0.06503403,-0.2596557,0.722945,-0.6206422,0.39910567,0.26986504,0.84429204,-0.4494512,0.68615067,0.52489674,-0.29640257,0.089549184,
-0.13505828,-0.42875218,-0.9426037,-0.9686713,-0.06852889,-0.019447446,0.017401338,-0.8895899,-0.13070238,0.13278127,-0.94803953,0.5227959,0.12348688,-0.9572545,0.9710853,0.32575524,0.72993994,0.772514,-0.54319715,-0.52634835,-0.833773,-0.41825497,0.34520996,0.5925548,-0.069851756,-0.37738264,-0.76255965,0.2938335,0.105454564,-0.29276407,-0.17333615,-0.17764318,-0.40600443,-0.5036782,0.19638336,0.6146662,0.2897985,-0.5568899,0.2970488,-0.3259138,-0.09078884,0.5713831,-0.22496939,0.102068424,0.29455793,0.29840732,0.64815974,-0.511837,0.2552513,-0.80956674,0.23949933,0.76623607,0.034756303,0.9498005,-0.05384755,-0.515538,0.5852264,0.79927266,0.38936853,0.8850523,0.4412855,-0.49702895,-0.77111614,0.70171523,-0.7861576,0.8273634,-0.7025467,0.8947991,-0.16625631,0.614673,-0.0036984682,0.6735326,-0.42046607,-0.3395114,0.27036762,0.90057623,0.69584167,-0.86576164,-0.45835245,-0.58369935,-0.22251797,0.76374197,-0.7862245,-0.17983949,0.9440125,0.8627305,0.67163336,-0.053209186,0.7012212,0.4837196,0.892869,-0.4011345,-0.022871614,-0.4700973,-0.92336655,-0.74760866,-0.5159373,0.09198487,-0.80224586,0.41929185,-0.19500744,-0.84642506,-0.36266398,-0.59554565,0.5975691,-0.7724166,-0.5449343,0.378685,-0.6244587,0.5729927,-0.70782113,0.33532357,-0.55716264,-0.945413,0.07127094,-0.2820542,-0.14454532,0.13718677,0.7402892,-0.30780542,0.5613586,-0.8286518,-0.65023446,-0.639832,0.066141725,-0.7186948,0.21753883,-0.86397207,0.6957414,0.5913508,-0.80699515,
0.2529025,0.5368316,0.038340926,-0.14128649,0.47132218,-0.15340054,-0.0387547,0.5825517,-0.1928184,-0.29123354,-0.5893667,0.7466885,-0.92737496,-0.79958045,-0.41013956,0.22406721,0.587657,0.70925844,0.96497405,0.6498915,0.21624458,-0.65575504,-0.16731548,-0.44909322,0.3320408,-0.18836081,-0.98289955,0.66222703,0.13069654,-0.4634812,0.9095167,0.39912868,-0.63563776,0.206895,-0.6641861,-0.5149783,-0.15299535,0.9694544,0.32868576,0.098359585,-0.48461723,-0.9649544,0.423913,0.9284483,0.26004624,-0.063189626,-0.25055635,0.46710312,-0.2251606,-0.24090636,-0.87741613,-0.63973033,-0.7952831,0.6119654,-0.66516125,0.2577206,0.074015856,-0.088366866,-0.46215498,-0.7073618,-0.19423687,-0.25529575,0.43057966,0.965449,-0.1665324,0.003973365,-0.89790463,-0.92692244,-0.1222893,-0.9988601,0.75110376,-0.40253413,0.20955443,0.959901,-0.03923309,0.7336613,0.73139775,0.899716,0.16226542,0.99215126,0.33476675,0.8209647,-0.18645942,0.45279527,0.38619328,-0.6627556,-0.37923467,0.58533263,0.27065206,0.6674397,-0.15847027,0.7969018,0.8920666,-0.44754744,0.863642,0.13944733,0.8784851,0.70888567,0.41629744,0.9346943,0.23324728,-0.9594704,0.03685236,-0.1168102,-0.6383542,0.32048547,-0.086480975,0.35461795,0.11529446,0.4106747,0.6101705,0.7533574,0.845003,0.43611348,0.14356029,-0.7335702,-0.17002726,-0.5303314,-0.35366428,-0.01275444,-0.9695753,-0.8436514,-0.3368094,0.83077455,-0.6525904,0.9180031,0.7755866,0.18308449,0.70386887,-0.3105873,-0.45289207,
0.6360092,-0.19741261,-0.03888023,-0.92758226,0.1276536,-0.33166623,-0.18471754,-0.9251007,-0.5705842,0.6233022,0.8668268,-0.56039786,-0.81565666,-0.461725,-0.05201578,-0.77147806,0.0103343725,-0.31070256,-0.95902693,-0.9247762,-0.1584177,-0.24507308,0.5683526,-0.10266566,0.40564024,0.11736095,-0.45301974,0.13166606,-0.859316,-0.8317096,-0.6907054,0.2521677,0.97337544,0.53475153,0.160846,0.7712108,-0.8661927,0.5803813,-0.7021316,0.8768747,0.918241,-0.9666027,-0.9682529,-0.51890266,-0.7331296,-0.24434078,-0.50674796,0.9352509,-0.14695764,0.38988996,-0.19061136,0.73160326,-0.36110854,-0.4216156,0.7069423,-0.09682584,0.50307345,-0.4086274,0.70275795,-0.15609694,-0.5416229,0.27298057,-0.24871123,-0.789739,-0.574185,0.22500193,0.3509624,-0.7198292,-0.30098546,-0.09769201,0.73473656,0.51229227,-0.293787,-0.13126123,0.61534023,-0.5234071,0.9510671,-0.27992034,0.9069128,0.2551154,0.98819387,0.26380348,0.44305348,0.81065845,0.7715142,0.3774811,0.6539612,0.69267964,-0.08403516,-0.24579334,-0.19411421,-0.67269635,-0.5448879,-0.5296155,-0.7457074,-0.41368306,0.0840354,-0.7536516,0.3839842,-0.55581737,-0.91979825,0.46237266,-0.17281461,0.4393345,0.9327904,0.7717525,0.14279759,0.01454556,-0.07278097,-0.36988056,0.54143596,0.31043506,-0.32316673,-0.37141562,0.2424854,-0.15309358,0.9245149,-0.64850056,0.5985247,-0.9985616,-0.68379104,-0.96732306,0.8225775,-0.93611646,0.64522445,0.7931291,0.7645267,-0.27077425,-0.9439919,0.2263676,-0.87930894,
-0.47169542,0.56056964,0.8528689,-0.7027327,-0.7312125,-0.9522586,-0.9264717,-0.8873819,0.9728646,0.74912,-0.9258559,0.99998033,0.9937018,-0.7337309,0.31174743,0.4021181,-0.55966735,0.06817424,0.17277122,-0.16999948,-0.7576699,0.54895484,0.8377018,-0.5577377,-0.8254938,-0.08742976,0.8033025,7.8213215E-4,0.002465129,0.34910917,-0.33066583,0.33619487,0.19781125,-0.88213277,-0.7592672,0.83780146,-0.9658781,0.5936742,0.5585294,-0.55630994,-0.5303445,-0.69101274,-0.2352624,0.783671,0.23961437,0.18549633,-0.3794371,-0.18910098,-0.25966108,-0.9479567,-0.29255784,-0.10494709,0.34201407,0.15341914,0.80166996,0.04419887,0.9985337,-0.4637779,0.3620466,-0.066271186,0.7475407,-0.7711762,0.5236645,-0.33493114,0.7560463,0.1942277,-0.75153625,0.7264483,-0.15561497,-0.28486753,-0.57538533,-0.7885635,-0.6782222,-0.33606172,0.5934509,0.8529409,0.9299234,-0.08281851,-0.24284244,0.39195,0.687503,-0.1994375,-0.69345164,-0.08125234,0.46022785,0.11026108,-0.2888813,-0.5468484,0.6812905,0.06772733,-0.7805382,0.6792878,0.3802383,0.054011464,0.6946734,-0.41446066,-0.35991,0.56756806,0.9053569,0.10384655,0.91990757,-0.6057489,0.4383725,-0.32697737,-0.9887855,0.21403062,0.0058629513,-0.8970674,0.43109107,-0.05379045,-0.32107365,0.98129034,0.013151765,0.11024058,-0.3325944,-0.91027856,0.5918993,0.81552136,-0.8652755,0.48412907,-0.23066127,-0.940071,0.42482388,-0.19393528,0.619689,-0.41126466,0.5026425,-0.5572597,0.17423749,0.3245499,-0.33095086,
